<?xml version="1.0"?>
<opencv_storage>
<cascade>
  <stageType>BOOST</stageType>
  <featureType>HAAR</featureType>
  <height>24</height>
  <width>24</width>
  <stageParams>
    <boostType>GAB</boostType>
    <minHitRate>9.9500000476837158e-01</minHitRate>
    <maxFalseAlarm>5.0000000000000000e-01</maxFalseAlarm>
    <weightTrimRate>9.4999999999999996e-01</weightTrimRate>
    <maxDepth>1</maxDepth>
    <maxWeakCount>100</maxWeakCount></stageParams>
  <featureParams>
    <maxCatCount>0</maxCatCount>
    <featSize>1</featSize>
    <mode>BASIC</mode></featureParams>
  <stageNum>11</stageNum>
  <stages>
    <!-- stage 0 -->
    <_>
      <maxWeakCount>2</maxWeakCount>
      <stageThreshold>1.1919289082288742e-01</stageThreshold>
      <weakClassifiers>
        <_>
          <internalNodes>
            0 -1 10 -4.9089947715401649e-03</internalNodes>
          <leafValues>
            9.7333335876464844e-01 -8.1538462638854980e-01</leafValues></_>
        <_>
          <internalNodes>
            0 -1 8 4.0840514004230499e-02</internalNodes>
          <leafValues>
            -8.4730345010757446e-01 9.3457752466201782e-01</leafValues></_></weakClassifiers></_>
    <!-- stage 1 -->
    <_>
      <maxWeakCount>1</maxWeakCount>
      <stageThreshold>8.8235294818878174e-01</stageThreshold>
      <weakClassifiers>
        <_>
          <internalNodes>
            0 -1 12 1.0886726528406143e-01</internalNodes>
          <leafValues>
            -1. 8.8235294818878174e-01</leafValues></_></weakClassifiers></_>
    <!-- stage 2 -->
    <_>
      <maxWeakCount>2</maxWeakCount>
      <stageThreshold>3.6363635212182999e-02</stageThreshold>
      <weakClassifiers>
        <_>
          <internalNodes>
            0 -1 16 2.7893131118617021e-05</internalNodes>
          <leafValues>
            8.5882353782653809e-01 -9.6363633871078491e-01</leafValues></_>
        <_>
          <internalNodes>
            0 -1 7 -3.5650663077831268e-02</internalNodes>
          <leafValues>
            1. -8.0231738090515137e-01</leafValues></_></weakClassifiers></_>
    <!-- stage 3 -->
    <_>
      <maxWeakCount>1</maxWeakCount>
      <stageThreshold>7.7777779102325439e-01</stageThreshold>
      <weakClassifiers>
        <_>
          <internalNodes>
            0 -1 0 1.0148093849420547e-01</internalNodes>
          <leafValues>
            -1. 7.7777779102325439e-01</leafValues></_></weakClassifiers></_>
    <!-- stage 4 -->
    <_>
      <maxWeakCount>2</maxWeakCount>
      <stageThreshold>3.0576914548873901e-02</stageThreshold>
      <weakClassifiers>
        <_>
          <internalNodes>
            0 -1 17 7.3246905230917037e-05</internalNodes>
          <leafValues>
            8.3720928430557251e-01 -9.6296298503875732e-01</leafValues></_>
        <_>
          <internalNodes>
            0 -1 2 -3.2963015139102936e-02</internalNodes>
          <leafValues>
            1. -8.0663239955902100e-01</leafValues></_></weakClassifiers></_>
    <!-- stage 5 -->
    <_>
      <maxWeakCount>2</maxWeakCount>
      <stageThreshold>2.2338617593050003e-02</stageThreshold>
      <weakClassifiers>
        <_>
          <internalNodes>
            0 -1 18 -4.0195910260081291e-03</internalNodes>
          <leafValues>
            9.1891890764236450e-01 -7.2727274894714355e-01</leafValues></_>
        <_>
          <internalNodes>
            0 -1 1 -2.9331788420677185e-02</internalNodes>
          <leafValues>
            7.7328109741210938e-01 -8.9658027887344360e-01</leafValues></_></weakClassifiers></_>
    <!-- stage 6 -->
    <_>
      <maxWeakCount>2</maxWeakCount>
      <stageThreshold>-2.6111680269241333e-01</stageThreshold>
      <weakClassifiers>
        <_>
          <internalNodes>
            0 -1 3 -1.3980551157146692e-03</internalNodes>
          <leafValues>
            7.9310345649719238e-01 -9.2452830076217651e-01</leafValues></_>
        <_>
          <internalNodes>
            0 -1 14 2.4051430955296382e-05</internalNodes>
          <leafValues>
            6.6341149806976318e-01 -1.</leafValues></_></weakClassifiers></_>
    <!-- stage 7 -->
    <_>
      <maxWeakCount>2</maxWeakCount>
      <stageThreshold>2.0278584957122803e-01</stageThreshold>
      <weakClassifiers>
        <_>
          <internalNodes>
            0 -1 9 -1.1374467052519321e-02</internalNodes>
          <leafValues>
            8.2051283121109009e-01 -7.0967739820480347e-01</leafValues></_>
        <_>
          <internalNodes>
            0 -1 11 -9.6236262470483780e-03</internalNodes>
          <leafValues>
            9.5184743404388428e-01 -6.1772698163986206e-01</leafValues></_></weakClassifiers></_>
    <!-- stage 8 -->
    <_>
      <maxWeakCount>2</maxWeakCount>
      <stageThreshold>-1.9125078618526459e-01</stageThreshold>
      <weakClassifiers>
        <_>
          <internalNodes>
            0 -1 5 1.8771835602819920e-03</internalNodes>
          <leafValues>
            7.7272725105285645e-01 -9.2307692766189575e-01</leafValues></_>
        <_>
          <internalNodes>
            0 -1 15 5.8213365264236927e-03</internalNodes>
          <leafValues>
            -1. 7.3182612657546997e-01</leafValues></_></weakClassifiers></_>
    <!-- stage 9 -->
    <_>
      <maxWeakCount>2</maxWeakCount>
      <stageThreshold>-5.5509924888610840e-02</stageThreshold>
      <weakClassifiers>
        <_>
          <internalNodes>
            0 -1 4 -1.7204960808157921e-02</internalNodes>
          <leafValues>
            9.7368419170379639e-01 -8.4375000000000000e-01</leafValues></_>
        <_>
          <internalNodes>
            0 -1 6 -7.0407902821898460e-03</internalNodes>
          <leafValues>
            7.8824007511138916e-01 -1.</leafValues></_></weakClassifiers></_>
    <!-- stage 10 -->
    <_>
      <maxWeakCount>1</maxWeakCount>
      <stageThreshold>6.6666668653488159e-01</stageThreshold>
      <weakClassifiers>
        <_>
          <internalNodes>
            0 -1 13 2.3720636818325147e-05</internalNodes>
          <leafValues>
            6.6666668653488159e-01 -1.</leafValues></_></weakClassifiers></_></stages>
  <features>
    <_>
      <rects>
        <_>
          0 6 24 18 -1.</_>
        <_>
          0 15 24 9 2.</_></rects>
      <tilted>0</tilted></_>
    <_>
      <rects>
        <_>
          3 5 8 8 -1.</_>
        <_>
          3 5 4 4 2.</_>
        <_>
          7 9 4 4 2.</_></rects>
      <tilted>0</tilted></_>
    <_>
      <rects>
        <_>
          3 6 6 8 -1.</_>
        <_>
          3 6 3 4 2.</_>
        <_>
          6 10 3 4 2.</_></rects>
      <tilted>0</tilted></_>
    <_>
      <rects>
        <_>
          3 9 5 8 -1.</_>
        <_>
          3 13 5 4 2.</_></rects>
      <tilted>0</tilted></_>
    <_>
      <rects>
        <_>
          4 8 6 8 -1.</_>
        <_>
          4 12 6 4 2.</_></rects>
      <tilted>0</tilted></_>
    <_>
      <rects>
        <_>
          4 9 14 1 -1.</_>
        <_>
          11 9 7 1 2.</_></rects>
      <tilted>0</tilted></_>
    <_>
      <rects>
        <_>
          4 9 16 15 -1.</_>
        <_>
          4 14 16 5 3.</_></rects>
      <tilted>0</tilted></_>
    <_>
      <rects>
        <_>
          6 1 14 6 -1.</_>
        <_>
          6 3 14 2 3.</_></rects>
      <tilted>0</tilted></_>
    <_>
      <rects>
        <_>
          6 3 3 12 -1.</_>
        <_>
          6 7 3 4 3.</_></rects>
      <tilted>0</tilted></_>
    <_>
      <rects>
        <_>
          6 7 3 8 -1.</_>
        <_>
          7 7 1 8 3.</_></rects>
      <tilted>0</tilted></_>
    <_>
      <rects>
        <_>
          6 9 3 6 -1.</_>
        <_>
          7 9 1 6 3.</_></rects>
      <tilted>0</tilted></_>
    <_>
      <rects>
        <_>
          7 2 8 3 -1.</_>
        <_>
          7 3 8 1 3.</_></rects>
      <tilted>0</tilted></_>
    <_>
      <rects>
        <_>
          7 5 15 17 -1.</_>
        <_>
          12 5 5 17 3.</_></rects>
      <tilted>0</tilted></_>
    <_>
      <rects>
        <_>
          7 8 8 1 -1.</_>
        <_>
          11 8 4 1 2.</_></rects>
      <tilted>0</tilted></_>
    <_>
      <rects>
        <_>
          9 8 6 1 -1.</_>
        <_>
          11 8 2 1 3.</_></rects>
      <tilted>0</tilted></_>
    <_>
      <rects>
        <_>
          10 3 3 21 -1.</_>
        <_>
          10 10 3 7 3.</_></rects>
      <tilted>0</tilted></_>
    <_>
      <rects>
        <_>
          10 7 4 7 -1.</_>
        <_>
          12 7 2 7 2.</_></rects>
      <tilted>0</tilted></_>
    <_>
      <rects>
        <_>
          12 6 2 16 -1.</_>
        <_>
          12 14 2 8 2.</_></rects>
      <tilted>0</tilted></_>
    <_>
      <rects>
        <_>
          19 9 2 4 -1.</_>
        <_>
          20 9 1 4 2.</_></rects>
      <tilted>0</tilted></_></features></cascade>
</opencv_storage>
